function [y1,xf1,xf2] = firstNeuralNetwork(x1,x2,xi1,xi2)
%MYNEURALNETWORKFUNCTION neural network simulation function.
%
% Auto-generated by MATLAB, 07-Jun-2019 19:12:20.
%
% [y1,xf1,xf2] = myNeuralNetworkFunction(x1,x2,xi1,xi2) takes these arguments:
%   x1 = 13xTS matrix, input #1
%   x2 = 2xTS matrix, input #2
%   xi1 = 13x10 matrix, initial 10 delay states for input #1.
%   xi2 = 2x10 matrix, initial 10 delay states for input #2.
% and returns:
%   y1 = 2xTS matrix, output #1
%   xf1 = 13x10 matrix, final 10 delay states for input #1.
%   xf2 = 2x10 matrix, final 10 delay states for input #2.
% where TS is the number of timesteps.

% ===== NEURAL NETWORK CONSTANTS =====

% Input 1
x1_step1.xoffset = [-1;-1;-1;-1;-1;-1;-1;-1;-1;-1;-1;-1;-1];
x1_step1.gain = [1;1;1;1;1;1;1;1;1;1;1;1;1];
x1_step1.ymin = -1;

% Input 2
x2_step1.xoffset = [-1;-1];
x2_step1.gain = [1;1];
x2_step1.ymin = -1;

% Layer 1
b1 = [-1.3058033697826607611;1.3240192771863492638;1.1606838506788901277;-0.93276426063902340147;-0.7530339457071426601;0.54836919582580845312;0.32821502916905276326;0.36361841100246738989;0.17100444306650106063;0.15324815907177707919;-0.1091068121041465222;-0.041558862663997858666;0.29228191788577051469;0.59669045910584672665;-0.66143945907911083637;0.90912273502826213001;-1.0844479599753134025;1.2379985932541428539;1.186996132766762857;-1.5291729326029308567];
IW1_1 = [0.11131705779801776002 -0.046069130363422451657 -0.012573606306908801516 0.11111245010752766882 0.037355956020264875772 -0.035246951513992194616 -0.088690322062788595758 0.055428330442971150693 0.083499913087169530534 -0.040185001570195028053 -0.012812473732165263751 -0.026772915753807226269 0.022285081384237473423 0.017920986831063887706 -0.057360845665450778397 0.019398255392418722182 -0.12008648563795464026 0.21725553950195489183 0.12469031909255848256 0.062629460527664743141 -0.14214419685306695085 -0.070074404802731568576 0.16894206302350198157 -0.13457958833077085514 -0.070371589380433072214 -0.0078888779372329968093 -0.17337540044799049088 0.12053679181020204858 0.00030091968072522377181 -0.14580624271081329968 0.052936344862271000888 0.058654468240710168347 -0.10330723922241694113 0.12010380171840971675 0.060837202411482799169 0.069454958409886011217 0.054793209112243890235 -0.14132989241216842302 0.036031381635255564644 0.17354677124243025887 0.074436965550351813503 0.1190234005513951393 -0.068782257815850011973 -0.16242257352078307009 0.10210501306385096065 -0.0024379531262753305516 -0.07698246228932686952 0.060871365290766268896 -0.067546369341892190108 0.096801400052552555309 0.23123159987587915687 0.095655161559155738038 0.042684753600347610791 -0.12842154258727073168 -0.11999981938376449997 0.17117698480535692429 0.097058012623073550151 0.076631069682491823047 -0.019412160208784765003 -0.015341104208887868313 -0.11678242469351246546 -0.0026779981647337847833 0.0051585939027230902354 0.1231207270757398442 -0.01723150437658636791 -0.16268400211813158207 0.0058166865306931696961 0.17842243790566089667 0.035680688568156440632 0.037481785467699632597 -0.039998506214150651716 -0.074591022336513407298 -0.030605846713824200189 -0.2289676866169164382 -0.086657677418287490378 -0.11246603783573486113 0.029676155228571129974 0.154240582698491141 -0.087141812396672208019 -0.022919688270838844968 -0.20301214120763502735 0.090529340048753362269 0.088610717207521588756 0.0066243058916354621152 0.10287351839244407437 0.016098532221005601439 -0.10294061024307958607 0.065297158392185958298 0.059596068776923097343 0.1181505188051701627 -0.12005638725005395029 0.0095514436299577402251 -0.09794758923377366866 0.060178508213351106226 0.20526698291102679628 -0.067414898413182225423 -0.018478937381733603895 -0.11630942351633902221 -0.16046345146060600473 0.01281550808929870014 0.14666395310348379066 0.068382981823743305139 0.074243356492844900241 0.00277833948865340713 0.11475195780892410991 -0.22350623254220663982 0.084372790044807452481 -0.041025503491661230449 -0.12317078687079797972 -0.2119497705254053399 0.087099376456838545346 0.1239180580597545045 0.15293952371241781307 -0.012175456177447255973 0.10274194413106491064 0.13757597892707323917 0.18846214345044193239 -0.13399652584220997364 0.17635071924846532077 -0.14758340508036524308 0.0064423353679563402988 0.078893761195103287442 0.0812765708555404226 0.065097825440406362207 0.057456780398624063277 0.021120103619257125926 0.2152994830727675557 -0.10145265446454854175 -0.11535147683157508103 -0.040875301825228756158;-0.18353991055675875077 -0.15277150313320425612 0.13083207097562127297 0.023620153192067845638 -0.068346894343643410652 -0.0056001004533573093755 0.080811972516158084301 -0.02240715974661777049 0.032782425119558339377 0.08356679424906537923 -0.1424622259442751282 0.10554031809645110507 -0.097728259105125184214 -0.040553542364470361592 0.068928922808418030543 -0.048189257921476380542 -0.082148098083161452676 -0.085492603740452005612 0.030977591311913396654 -0.010005707383813167849 0.089371840919940312431 0.084863094054924093079 0.095647391218280836123 -0.25256551532227444756 -0.028544342909733184943 -0.018747400831094593321 0.041236917692178867711 0.082056437207584306814 0.1492794881705944432 -0.076705208250575515616 0.26732844372147868128 0.1047947180493189745 -0.058559328888147459125 0.26265772047484381435 -0.13278217686823245991 0.017031395444761610741 -0.23772237483727234886 -0.0777259468919304225 -0.0094546611025906456688 0.27741894328745786424 -0.20813650178496773124 -0.11428508078082284805 -0.044868237014679589192 0.0086862648185724502387 0.076089683301140825789 -0.094469060984558983485 0.13282333868095019813 0.2532810296490365376 0.15460841293871691038 0.20201873530583563943 0.11974247148012870379 0.13371103654484664536 0.10340887296996517652 0.060515085046836565585 0.089168016755888285241 0.041755806195800472536 -0.038552441562357993299 -0.1817339506085841605 -0.11324325523896433543 -0.10743089489247333035 0.05076437206821118181 0.16939509698593982479 0.07023265509298151632 -0.042664615089766745604 -0.14229452285307025994 0.18061890404703459523 -0.31917510539074156473 0.015615183076532741444 0.025176739070408897525 0.016773771089060036943 0.18096549354981375513 0.15696026990302533455 0.21038065285451623687 -0.15511109249486643158 0.13849146706309303778 -0.21107215985364841115 -0.098420667176941978305 0.15466069640368229621 -0.07557559329959508132 0.11143096357485096637 -0.0060505187432547419962 0.034447227909697168691 -0.034094986522671413831 -0.0098897130271076820474 0.0083550600961009632156 -0.17865142769797434652 -0.1067533634267516518 0.017237750185267766007 0.073729456662543518819 0.18640606153212699314 0.15238181786044097121 -0.11711674091181298318 0.15539980179112009018 -0.22331123129440816344 0.094395387487220122624 0.079792039066871975339 0.20080428177885495389 0.022647202952678590487 -0.10702326277565826773 0.11116830898725479915 0.17022863978287774978 -0.041999272794911265971 0.037422464953494327666 0.034955345112131004648 -0.020441548195916248859 0.082719633950123688804 -0.076799625377203917242 0.055290311419171261909 -0.0075318289506165134184 0.0024338629263954102144 -0.062509057043538207576 -0.13126822523448317126 0.047353324260453702466 -0.034859757455465614773 0.0050478103960723717455 -0.07360777546355329326 0.20080240782583205772 0.19260286213388994048 -0.30166818041566978437 0.065620013720463776785 0.1502861126706881989 -0.053815503808313583378 -0.027540273297103508993 0.094733024457615513936 -0.17716731719156894598 -0.1413552584498005138 0.081333967642491580841 -0.086616943718713368394 -0.017933715716219336689 -0.092384339128559297971;-0.064246220269326859142 -0.0049541412859923014689 -0.1009224854820248013 0.14701683082525598967 0.18233274838180144051 0.2174215540094641963 0.007086712538197615166 0.13313911270631775818 -0.041113407810312120605 0.16476841867042868461 -0.1030833325496899322 -0.13242689530255122299 0.10745048609145975427 -0.10596940509957286647 -0.044079432859578160375 -0.16116544013119016299 0.17912314269067292072 0.023064047773850172157 0.086140428962220572107 -0.02844020069649247362 0.01050528560853795576 -0.15913422318133502165 0.054225587923159748738 0.13510835190648684545 0.17314307906827439143 0.079956824938729811891 0.10793065219507616548 -0.093081463028585859076 0.084221764920057368142 0.12615628989033852991 -0.18611235218451221973 0.040806545068776262086 0.097072335005633808569 -0.20738471960034082775 0.14418248392854077222 0.11360778036478616504 0.090285294250845526953 -0.13794914865843826979 0.041084829406245762518 0.11584489913427176155 0.16123621331578588678 0.054819085909509450427 -0.12135856105944213545 0.17654699521488997904 -0.16716730109912125712 -0.074614446419867683225 0.098103170244278836698 -0.068207308653452439207 -0.080154129183102509892 -0.20666606266914708256 0.035355905955347648184 0.018349894112952513936 0.07619914244677561399 -0.064850487930906100531 0.13730723303581149342 -0.11158708631398757405 -0.0096156186723146304385 -0.028095645093369484707 0.10274350100971935129 0.091857669864997840148 0.12646283782264491902 0.03959627747784925933 0.0821407244166316719 -0.088889874066664001373 -0.16856014686984796547 -0.1941158337699306069 -0.0011432655556877120706 -0.087994388941255746728 -0.13690956295534617571 0.015391894020974657489 -0.065898688169952007732 -0.086428899661122632336 -0.06182640745501602475 -0.077703000544547096151 -0.12861062873686873731 0.13077160447054275716 0.18238643366323914474 -0.083080932050725503357 0.057559073237099876719 0.087988677981078664003 -0.071053696760504311825 -0.12332511965574696755 -0.027878865986544848488 0.029331341256730283223 0.016438772322206206961 -0.09330395915985799371 -0.1491618393865709602 0.013188878674462016852 0.14062374848692341112 0.072055854001691135857 -0.0089293272559242044956 -0.081898187256946072821 -0.11247705239385155651 -0.14876018836903068254 -0.01513169785287725097 -0.027317722057825385984 -0.13848539477247190366 -0.15387506025010624922 0.0080008994428362612689 0.13972901698269693527 -0.024540837543007336385 0.11830347487643005921 0.16256293037999755557 0.10600565366683147028 -0.033575120555924056753 0.02685111572408600128 -0.033014379982680669423 -0.057898460629824712032 0.19032377180661666505 -0.017709534923717056704 0.025921803567909650068 0.20974065666883401349 -0.10089422718860574513 0.13015561853378984636 0.13317125765613135879 -0.059874129741705486851 -0.09888036411086605082 -0.13592664715951072174 0.012756234316109903854 0.1714188250663180868 0.15308980062346358442 0.19323239562631591704 0.066080515081101284802 0.095734154508772859038 0.055517500119583645946 -0.097346945608809465345 -0.087897928165984892668 -0.13828831695347904018 0.0078729127852853568459 0.033209948341434765429;0.1099115986261193223 -0.047013151880748983713 -0.12269636271409931072 -0.21141548674150009712 0.030320923564855922078 0.21749503720650209537 -0.10752448709818425432 -0.026605791324431676131 -0.054341900814347518511 -0.12470969038979237697 -0.089859242268233774364 0.061359975023020867091 0.15198364039001555081 0.030374523190970965231 0.075934943390814274577 -0.051494975166380442533 0.073397474281068728064 -0.019495094922340274607 0.21754088527164905376 0.10589797072387314991 -0.14280931140878738717 -0.17576479090439955932 -0.019097019561886932615 -0.16630179764168520617 0.084333864598215013686 -0.090953486954375842299 -0.2475397859168724235 -0.13055517809703240384 0.074318620707841342998 0.15527382190919289395 -0.14423399634095779298 -0.037432169714196467103 -0.053784592891866905839 -0.077267668154374136158 0.031266368733735630525 -0.11178420341234868163 0.076956516116046883025 -0.19929966868728249407 0.0083584193055129575589 0.03552405568586530088 0.13517920966408805694 0.14034751493078062579 -0.15272642506426131748 0.13855902602352707098 -0.033768733669503808725 0.0012656001698717143228 0.088311751083099243598 0.18868059324694211321 0.094343892264339271336 0.041626633243919436422 0.14877788783923712179 0.14140939281544900874 0.079069066504467350187 0.1033175533378414418 -0.085309124382634909933 0.13756966028798628399 -0.12940467930217161574 -0.074534410621093796778 0.19958031133807285773 0.15636568600231950943 0.0077275641590819326571 0.18643893078270837305 0.05480673821064813156 0.039941189761944176362 0.1000873009450076595 0.11804273853472044276 0.12975360573335825709 0.050066592390221986708 -0.072669495592000435402 0.017872460582662768463 -0.065730814841916923585 0.054149372131634072869 0.17041321400542214226 0.15865649766858530567 -0.20375435394281732338 -0.0090431964840861356336 -0.04530479247061160869 0.1547930860324527591 0.051010063393574216206 -0.057148417247238687822 0.085163757844378407125 0.0024900597748394471403 0.17863564277806437408 -0.083439497335744530759 -0.21221432095391354333 -0.11926233671875355324 -0.077636317890299053057 0.067876909269825827509 -0.085833485270371351339 0.19801707515747282717 -0.094301602138523177299 -0.11518387117118368546 -0.12087990894055035407 -0.054119515755235658716 0.052486995066123663667 -0.016325779725132615744 -0.067184911301283983809 0.15358870148537517863 0.080744419904950431865 0.06052518914904391617 0.054011730418053384428 -8.8998536922208154945e-05 0.18964016627762217415 -0.1432184882013134708 -0.079643985364154887274 0.11007879742298394554 -0.19583630154435086035 0.066092254721907051085 0.024353005927908046024 0.19202881884916583877 -0.080088563751701480342 -0.05674716685205365152 -0.058199130068481159939 -0.026903466884433218514 -0.060246443496707283161 -0.15117802887431341929 0.16509086681544044017 0.011925816450478224709 -0.093854079341023771699 0.13446656995759079245 0.15960579153829898558 -0.044682744716675798502 0.068817024908922524995 -0.19463184244394202138 0.0070780491767502961425 -0.075700564084892257855 0.19364761356234749812 -0.0795562985157767244 -0.12154740243826891999 -0.086195536605348496706;-0.034166641907150692437 -0.049244216197841701732 -0.025926777118126735633 0.045290816124914534679 0.16327923909555189241 0.0425152424924021069 -0.030651674273372925272 0.069844450528601109696 -0.06457471074572490588 0.0090741322772285425841 -0.08315302346860785343 0.02342991649821320535 0.03544662720496774555 -0.18508435554421667768 -0.0065023860164317246607 -0.098628017660366065766 0.12882953088417681276 0.19323284542917765205 -0.082552276295792648142 -0.038494874958823449562 0.23883119243550388067 -0.15733787514232172589 -0.08938826854610179562 0.063454283408707512493 0.0070395667752706095679 0.026169958049763440006 -0.28598429695973348608 0.048972179868068045627 0.20963641273499922235 -0.05785918113358187731 0.17781940353483138839 0.23415662703218437235 -0.099529893631824795097 0.12127338082841071509 -0.14768799422472622673 0.11082111645358140584 -0.025984976653245870498 -0.28992581790022070587 -0.044757609632181567794 0.42581440779484081016 0.0084775917649137031568 0.093907518960907460093 -0.030104543144404655869 -0.056456504296172889401 0.051199929755871155523 -0.030298306922972154109 -0.089083875886498700702 0.14159137040559721665 -0.12885069563273254811 -0.069377423742389754402 0.16747551895454951265 0.11000416630455145395 0.085526945419063818421 -0.074031323189328632206 -0.082546352966547040242 0.1275983273027063436 0.007932621481244678599 -0.046228266326289492449 -0.0098953305865908912364 -0.11473965379237405227 -0.022459574665949659511 -0.061170045541095258157 0.09275813557621449823 0.015096692493797497781 -0.096480869991946119346 -0.086499136484414734793 -0.12856079601248424082 -0.080334984329450437324 -0.18522086127859097027 -0.21368036037289070417 -0.056349732810011259054 -0.0031958634227750555915 -0.23024436450092036766 0.10477220418100630095 -0.13906621485311501663 0.20176268049341611333 0.21355502935590015001 0.19351815646273756721 0.0095201611253503092003 0.022401313696635550415 -0.010118631705393564199 0.14459877781561850107 -0.18160064146957100029 -0.0033473937124784119285 0.029288551612483035985 0.18784387222978016219 0.11653405635161163956 0.018937931979788522746 -0.11529354897198546004 -0.08641849713274304956 0.017031598639154210684 0.057097132343602301219 0.0057656707213988838551 0.021235820580192583951 -0.14661899392300370426 0.037833650723592245069 0.038979765791781743889 -0.0067469332693208868695 -0.079389054969648417681 -0.081914187457648973689 0.2017785364575397089 0.11364650019098902767 -0.040070044662810951064 -0.18238441803074412206 0.063643531614577572575 -0.035656561335430082826 -0.056130845007740862163 -0.069745275070646067794 -0.14794943419901224191 -0.0052840760716194000446 0.10497591276896207912 0.11364837565325716651 -0.072209063382351543203 0.083306023925450403689 -0.15905576358276785065 0.037225348481072131901 -0.13736130183596489962 -0.03690340532831714454 -0.096156002507900240062 0.00065550969213156590198 0.01035763716890193871 -0.046143447213484969915 0.044427737730215015322 -0.13022226299242800618 0.29593952295242748063 0.091286928911953224564 0.078838254832552190354 0.00066969241423056212123 -0.054000907849369027269 0.13586754330241648803;-0.1198577264309937801 -0.0094598030565393297769 0.076386208717776196697 -0.15682495501698326401 0.12155284601245049114 -0.079684407465378900848 0.041561140676373876934 -0.029870303794573484224 -0.023133859762798074378 -0.069715509671060882368 0.037315972672279131006 -0.0036926109610205390052 -0.0056241114051409756697 -0.21520739174927763782 -0.14925582273272186562 -0.01552766768387871775 -0.26177903979013888991 -0.009824824353363282442 -0.12231531759158104089 0.057327664577967590853 0.019770805120118091491 0.051865123812968899619 0.10782637484348199519 -0.014395359871413200212 -0.076147427327643679718 0.071147091314399779627 0.0015754849365291409558 0.045924176589891632649 -0.27178105309092209785 -0.28033332410619987707 0.01818740102117254176 -0.0792387462091530409 0.045747811489766823656 -0.10632577975119075764 -0.075531326243718957536 0.19585421864098515043 0.05401144727354365016 -0.10234900054309181705 0.13721826373308959601 -0.1474247117732067347 -0.09999825171441685534 -0.044139623239422380585 -0.015212764921194114193 0.053950826891869294033 0.11356594100074150766 -0.11066282883204311971 -0.033445376289601480568 0.21760533661270120565 -0.03259882588499560252 -0.048237122247407566988 0.11113211637788558694 -0.17111847273751107368 -0.0015869654833444903769 -0.025940910733650197201 0.19260172405894895875 -0.15199836166715435803 0.056510612354941092139 -0.004075168967823609989 0.061823761708014512983 0.10828499491131683696 0.067196462371003767844 -0.14473461681381463717 0.12927565703369930938 -0.065522472412254215146 0.18477989003970810011 0.081827218997483658347 -0.040183655491320385833 0.11447297687310392655 -0.11073823201763210999 -0.055493567015087140459 0.071556194633560069041 0.00043324328741635356049 -0.041603607880816670384 0.24129406448316881306 0.20529264009321346318 -0.21403760808782967828 -0.066092006569787004056 0.16597852264250878562 0.072138066900431535577 0.10161881815460079015 0.12018625599424076489 -0.037448447171063624361 -0.074609279005906553595 0.20636061559657509212 -0.039750059079582442112 -0.080926761885843481736 -0.20709824916710226073 -0.14573534656577316615 0.071262114937521658931 -0.094870006321486261003 0.092077237190764826824 -0.050385672526410213434 -0.040929918325886618935 0.16954740344504187766 0.027903022854487161131 0.044837660059852721406 -0.10752982161941740391 0.10222418694178903031 0.13358786336223718583 -0.13409769294748735691 -0.042947456305118293651 -0.067746433701348612866 0.16408941018878298035 0.045689251712579072306 -0.061442671346635918672 0.041239340676739726088 0.24781426116575078211 -0.064622684729519999647 0.055970823172348103947 0.12603293384169955704 -0.13002743545015338356 0.1205515328083147375 -0.21509603233220522811 0.1257739804379080506 0.022540514186263221202 0.058254832466501996202 -0.03987633620202388901 0.16995480588664294008 0.11601111204000495725 -0.37057627997352526883 0.099268869487516148142 -0.11354874968984693395 -0.15451296178096168843 0.12013154437978104672 -0.065999377451004592743 0.19194474683198489706 -0.10010846900032716045 -0.028072063266897533118 -0.091557272681048795793 -0.062106811986687243676;-0.095060140734726877865 -0.015941327976673788647 0.024641686752522123927 0.02292499998005820272 0.15509527929688127212 -0.16034468877537097486 0.079884979771819686345 -0.029014708238555352721 -0.11057068363335795236 0.13437076795529095952 -0.045551057543452115606 -0.080864427674284158898 0.11614365420736352807 -0.19635976105785318824 0.092832034643082261827 -0.077092100147011066724 -0.075365142410578025989 -0.064405770882612164985 0.051292824191809409384 -0.088899978773714277702 -0.071194329725348615145 0.01087254957723604934 -0.03076301192769825138 -0.11480245042431254376 -0.10282990463834526529 -0.019961817575806398845 -0.13396150545980070601 -0.024064993826111089059 -0.031594653258316299227 0.032586616176303602466 0.11528100539443650319 -0.035825270442785238367 0.28042371809759092383 -0.039710383882573217773 0.023153724559094319979 -0.17252058874805847877 -0.0017256862921324125915 -0.010067115545466709739 -0.076745842559387808524 0.089316747859368023077 0.12039786861118084715 -0.10770044060553664311 0.19781690385696040768 -0.1493839829335203151 -0.045119910237120745833 -0.01751527677702694602 -0.021433949824659521977 0.10135551714470762696 0.10552467932813512641 0.0078116535502390678503 -0.13691989561307657541 -0.017849913664169492211 0.057463818943999593614 0.03965810610221856547 -0.02280296604303240493 -0.066709756202711273376 0.19429349895145517357 0.13701620552231172367 -0.13559759339663984834 0.097241941172996324005 0.1375687280673588142 -0.16058770291937385366 -0.059913600494308855149 -0.04013686596188494049 -0.074020762232949871562 0.25634086631037161785 0.12934329592948662357 0.17357095324380328316 -0.027717975655636009624 -0.11301815208016749437 0.12923847778565053512 0.1518795433266978967 -0.2190247128560077472 -0.027327216556883610066 0.034665039267160017988 -0.032989999728662247613 0.021229399851849756892 0.10163456754869618082 -0.13023050225904914123 -0.10240191104651194531 0.13806024632309032985 0.13433134807155402979 -0.06444202734861109727 0.011036436972071241372 -0.074164451687385959944 0.020833994485239763078 0.15037544592861101789 0.11259395923298887165 -0.10939041141049181405 0.038363607503125160547 -0.060603669919802170829 -0.13504538329753679182 0.19119455323656761592 -0.073821598998125959046 0.023594691781762523741 -0.022277040757896854339 -0.12774361934608935432 0.037613171589662174055 -0.064873427191965093996 0.020379833432370840496 0.031648534867195064757 0.20534688440875731308 0.056755129598762880938 0.14771875130918515895 0.10957276139038055196 -0.091699993925416029006 0.063508061703641163764 0.05432906960715038619 -0.13942948367972402002 0.0054269172221546634408 0.14229320109538085015 -0.054151926701931585306 -0.037059025002336598575 0.18271366871069896765 -0.044522191803299498991 -0.044796029857688372811 -0.19940779878906067513 -0.020453921823362818805 0.1583967379429914446 -0.063327469893738122519 0.089292042092028553468 0.080747102350104058011 -0.12296207617680252056 -0.024045927588906921418 0.070569332292576808507 -0.07288931219289440655 -0.017056992759392021475 -0.19013367356306359879 0.15244398266245923201 0.10825417949496643488;-0.13759213765869482415 -0.010087820954684375771 0.12117484448519307005 -0.0052696572167115112231 -0.02423519835059833108 0.031316827924980861209 -0.031407623879930200717 0.017297574434972786545 -0.063049996924208040472 -0.014390739851431938456 0.0012626961732982514008 0.060008122990614087833 -0.073110789450143653934 0.050085727085708305062 -0.012198765383270098253 -0.13071408333073217256 0.040721148511167246098 -0.078191456491701200049 0.0021900689215596891128 -0.017833547207025870346 0.14754109309805113481 -0.15956318253246284944 -0.10799690643742486384 -0.013328493243396674628 0.016428241959047743675 0.098927991155275202262 -0.32711911739901733398 -0.050693939502462571911 -0.11570528040085324706 -0.033789196266881753317 0.34713925183754185122 0.014948107583901587211 0.096103508034441162411 -0.010508935623168118301 -0.05262972081443123562 -0.20665107753876138519 0.042697933823374882578 -0.12997237821870388785 0.022828443746508844669 0.35159297629470981361 0.015610826166803898341 -0.0042724656044709000136 -0.021149737866339068243 -0.048231683161871291565 0.042945773120117138044 -0.015748877894671289845 0.0057602081657177235663 0.033831487719239647372 0.11741570663135619812 0.10979779715504504878 -0.0053694750430023962043 -0.10722245644822753219 -0.055439714907503212515 0.036265879146791669962 0.079608508056687066201 -0.13420452467549626174 -0.068392849618949272394 -0.019050508882190581722 -0.072311130973818110723 -0.13959675464204407414 -0.070576335523347355494 0.1399885902336383825 -0.085450214621139622406 0.19923462454562348989 -0.1795543270727095464 0.062861335404855417375 0.11035291252203653645 -0.033275686666824899618 0.037446135714904543734 -0.020666356004609059971 -0.14695746768499640122 -0.012855155511411050714 0.0086358564624369714424 -0.011231813842812424231 0.0089149712897938406669 -0.10063650886773753412 0.037765013477123660079 0.12040594335842429163 0.16662305429099316667 -0.13519087485466221854 -0.027140770354804735764 -0.25074361270983980265 -0.014776845840897747525 0.050014823887392902135 0.14579637010966936539 0.11472715029448000978 0.072364345419866069054 0.018245600970012442604 0.16367646643086125602 -0.10200385461277924892 -0.096565314204997657055 0.15526721448276797899 0.056471039981289244958 0.077765488255591722067 -0.1915031315852550875 -0.13352263638249464717 -0.034461352918536011791 0.029979977286259295449 0.1230349639383250121 0.10000382596660421786 0.038664811209555664806 -0.14298896431873922563 0.0072866317552651082776 0.031544468101793961268 0.24317317758659681703 -0.11098119209630856463 0.08162132683699822866 0.18239697475076968591 0.010149286663947510237 0.040602784395053194422 -0.0095831616775426953225 -0.1096155762802941136 -0.064446711209948867594 0.060799454123075621914 0.088843066092058983751 -0.2099196256593061638 -0.050097535548076173317 -0.041450630690450601668 0.059415090036785862815 0.0038148989352348866566 -0.1611433538806980037 -0.099445416624334467826 0.0019173197322085756833 -0.010443010934893224434 0.35333748805016151895 0.14921871399028327487 -0.21729790660078804332 -0.022077593714317111928 0.006440021673150855136 0.070459379179096615076;-0.2419036253140137982 -0.040390705927763011218 -0.064737718362947546669 -0.15013165887982904412 0.23924903130719665789 -0.019691702014196944132 0.010302065368644414481 0.033297602099308432066 0.0036345234899150050123 -0.15092005472132360988 0.060647900307736868353 0.19727100301128622228 -0.17805364650191454756 -0.15400097917397712055 0.0079215015139100630054 0.1514315023714430386 -0.05936553483066533965 -0.020520740262319134284 0.003479087335840744602 -0.095554951630332438106 0.072206889872497653782 0.095785039558442794383 -0.11885258217533296865 -0.04990209224908508101 -0.054112692566872337696 0.0044237451710739212826 -0.32884321810215111359 -0.032042687368025637995 -0.020626979867199916191 0.014370913793085270116 0.18924162393676624561 -0.096309925250107550343 0.06759546056590479135 0.26471506974222047681 -0.0038127643957525311769 -0.15509014153351005638 -0.021758888006053821174 -0.1735094957582181685 -0.15196570901550165988 0.35044103367316531417 -0.045460516260536279476 -0.04175130213245682731 0.076569147698335768282 0.076283684903128284871 -0.16835168475502407248 0.096183388646215103868 -0.24552492279136650666 0.00019838307832613193138 -0.069385847434591099714 0.030995783175383751634 0.076553040042374537189 0.18649112929309494269 -0.029356980312623535967 0.014329581938477161523 -0.10644327225510165358 -0.067141207049803197648 -0.13604868847180334734 0.076996610882379079577 0.089104098459745637029 -0.16750969581400160235 0.011745115408350163128 -0.061521872711506130071 -0.1097961580709738566 0.14724989694235954274 0.095975145553693422262 0.10758937503250108614 0.13240821024805929373 0.10977219344386959787 -0.038095648961532765919 0.006070098769273652925 0.058505020098726934208 -0.090523381075072267832 -0.12105404222647887791 -0.12302793082260785051 0.12954903400657835633 -0.084650907570766251165 0.14058203889979353773 -0.082784455042422516735 0.021823469018128493352 -0.070904384412338788968 0.0029159689685490809002 -0.048788957851327148518 -0.15234422190367249983 -0.19175794002327983812 0.015794112052176866035 -0.04051227308712700842 -0.023623550032639762525 -0.0092707527123307188754 -0.13815614693366645715 -0.059984792724358797222 -0.12885935668753034644 -0.13632000412013028923 0.033115249507722405165 0.046597103564618824745 -0.06556955374554497562 -0.13517343987367017033 -0.0033784163412886305741 0.090885815109824935609 0.20084704354470336862 0.24990459771332756977 0.17321594478688828733 0.17166025241376059451 -0.25352079369588970126 0.20583207699192840323 -0.04790802815147798821 0.042950103812710103968 -0.10227108682031438303 0.08592274044660387633 -0.032289518122066311612 -0.033327514046853516649 0.015492642403549103033 -0.1537340971098412612 0.19559128180083712456 -0.07846795419460740606 0.13191891974094910323 -0.138309255732341152 -0.028216414111168569567 -0.0076837005325786737753 0.088351678362067004313 0.11838334402255297484 -0.0060092194808280020857 0.092301094462282323727 0.11840849903853199743 -0.021380967275489593665 0.17139629866526762125 -0.29151370260908249232 -0.14314218152765836867 -0.07691682165784712033 0.021234181701490391359 0.12786233891830880993;-0.10306668765871548898 0.030655416146288159973 -0.094201344344059440017 -0.0011951026695572008855 -0.059813666473673490764 -0.034370499811094815112 -0.093067759367149519023 -0.017544795479154440265 -0.02791119773641548979 -0.04048815750876125219 -0.1199857378900489463 0.12999855029999518585 -0.059503308640838005472 -0.16051116136078236174 0.05284329646177693407 0.068863738260596607521 0.010410391075843112782 -0.16079259144662894077 -0.16232370155868211525 0.022360680235521176312 -0.021372678456063293889 0.074386311057387924373 -0.1136671259677134449 -0.13320714394168320371 -0.10233073677017279213 -0.028977230621410384609 -0.034810343904019165617 -0.047581712628306856161 0.10287241991604711977 0.10295014948030757618 0.18748702686413926122 0.066443630615241972004 0.0051918405862231963716 0.099280902321836062008 0.08747509260894670291 -0.30629897132018563122 0.11558147662920965903 -0.22396792484518671107 -0.073408709792969331631 -0.087253787530513604587 0.092932310047914412632 -0.067529350608888427665 0.023328184339021843657 -0.30845331129629988132 0.13606720377822190127 -0.027254271469961250524 -0.0044414504824017361773 0.16316849915285114303 0.31068102321400553611 -0.21119950136922857609 0.20756181162721382139 0.10409334240600032206 0.035450837727062499416 -0.061120258606166447124 0.061331740991855121514 0.042873395693921005634 -0.014532338054274354655 -0.1079576681365044255 0.014523843429385433282 -0.031088877117334975941 -0.02733597560582133254 0.11670241852178941944 0.077640550409941819221 0.14894475072223864465 0.16352904982208998907 -0.19540920748993934053 -0.1634639191902248212 0.17905603338383840883 -0.054222704912439821656 -0.045732347307027840233 -0.067434698754630012507 -0.090657178898917306631 -0.025014249146030283905 0.20285121660632843277 0.054931196860284692285 0.16991996552371069207 0.016188586387727778304 -0.015779895049008115654 0.043744691536465311887 0.18736243813073943931 -0.19037583444566871793 0.072573046007786343181 -0.21932923258217770779 -0.16529924002628904045 0.16939699452883094644 -0.020857471366216275011 -0.03491030470331048241 -0.045191917826778268963 0.17094862113302736195 -0.013940341417736229479 -0.10295539985945231787 0.16085487713767554485 0.024560224764423779775 -0.034677922749007925041 -0.054798106899985134233 0.14724420577617688966 -0.068841177533803157851 -0.061008596610242833702 -0.09480369569226526627 -0.252736170246431191 -0.054024620758979985391 -0.036328042855941392042 -0.25964360037357192557 -0.00062466626392908806975 -0.19150721982717952563 0.037255229530372656332 0.057232896078510328564 -0.010085841870743988968 -0.063753528989672528238 -0.12944653333291999964 0.099857600126266279905 0.062917135150109868014 0.10327747380455321036 0.05611467014943648246 -0.15626047268904216803 -0.038197347327759409441 0.1022448997184347147 0.29578959919945946311 -0.037446306319851414834 0.0046421339653824039012 -0.014927286883596584469 0.20445325742240080813 0.061866472401682692794 -0.068557006154987110147 0.11712334888928870036 0.027579287091192013215 -0.1756786084682584459 0.047441350757662703597 -0.13588116676313455322 -0.053835521788090451301;0.10803399322786269576 0.073930333842222001328 0.14679352934629497085 -0.060599299793343240628 0.088926811073241129879 0.079029321631506166401 0.020238806968752510312 -0.064272009995888570999 0.10136503838920060683 0.15050337458590384854 0.017926595264831878679 0.036841291971459501353 -0.098693808060625595746 0.29025516432294118374 0.078657946093641739616 -0.1120517792436025728 -0.010294617703902369382 -0.078891781246940781425 0.051764485571440928269 -0.14116069427549279847 -0.04168421500178511041 -0.067777254451626078868 0.03150018944979620511 0.093663856902098788226 -0.0084908244241487275394 0.10228923628353089881 0.03618059763078889518 -0.056602934539394259006 -0.14905904604347297582 -0.11932381596799052081 -0.24015852720366467898 -0.036876264276212697424 0.1093633086128846521 -0.026157540392066365442 -0.026783796189485342687 0.0024588884624349742133 0.10200224561079526686 0.2083849329603705558 -0.15376961935893956879 0.037549849019625970714 -0.04492158406864983633 -0.044353631403780922893 -0.25459283922103842501 -0.070870508878935117858 0.054890076782872006256 -0.019537037146345973687 0.18248411378477336076 0.1063741948876724408 -0.13183750095515078815 0.15566265897239286997 0.042559383483399881865 0.0097941762508254592845 0.053458804669287984801 0.048060239732433229776 0.001924213953100512714 -0.093541039442979784235 -0.09806992465196036346 -0.10803491861340808189 -0.13383398867393969667 0.048767894272389977761 -0.054394941697572862793 0.13121216442223229692 0.037000908481806878136 -0.084941829422225917368 -0.035823246970588813742 -0.07144569266338986202 0.063879321610072467563 -0.0013916892644968148485 0.036189344032348247371 0.11739069851363118091 -0.010832638087886588968 -0.10855468843422827474 -0.035315217438749144097 0.080577530940442496088 0.1448646975873321141 0.035985712538390196569 0.043648834379453362031 -0.065315737992092295916 0.043326344856215989743 -0.041014948108511611879 0.077572947564454486358 0.07713774220456695585 0.069284746420685008883 -0.079731079674940003033 0.09531793205362036614 0.1016799345608083438 0.0017168185741661184593 -0.079340578726786167851 0.089450850584070082383 0.0082397847883000068653 0.093121717900898293152 0.073849223488611184796 0.034606016573382025747 -0.13601919986663874029 -0.1804013793982936209 0.17396892427089846733 0.08029298469827332585 0.075455880033849731525 -0.14556777676922802445 -0.062322416418299969587 -0.062468655902789479994 -0.17454181950147393265 0.068626387877779915225 0.0081635316171843781696 0.15757366752159635004 -0.034085574413351131529 0.092085650384020736881 -0.0067180334839963933014 -0.067541580909161361146 -0.080164494979238706818 -0.10260267054648546103 -0.10776221178518692601 -0.037529177222229988253 -0.13395241644765987221 0.041645925098964572952 0.056417171987242394071 -0.010161098671598794291 0.030536284889877210458 -0.019684332352361777474 0.067496315645724794252 -0.027133421495600881096 -0.1151147197126981131 0.079813768916868102488 0.055859131696860915561 0.085114680034657344554 0.079067936554129664151 -0.06997250041479660676 -0.054050334226834827189 -0.13168888302469825002 -0.11413281322050788935;-0.14393060411906569152 -0.065690419788278206492 0.049136050943642622935 -0.13811537387495231854 -0.0011485220272991758517 0.10857841626840171456 0.025127577093436478939 0.10118063807400064225 0.12423500342381803285 0.22382099854934545125 0.016710210500197650307 0.03796815024429441715 -0.09920578447300235081 -0.12638933119049297615 -0.086260321943103332454 0.040803013862983045223 -0.08306957717685291287 0.27159415476270537537 0.0034244943386814961916 -0.03658873670119772159 0.14067476229195910453 0.13774567312072849568 0.087126321116736488159 0.033153334088383709655 0.0078057774302738615335 0.17048208051219840287 -0.13026674703944729483 0.023835056089963488346 0.1365619183018653704 -0.044351566588925445123 0.42416715539589811002 0.059145041460844378911 -0.077292535282941693398 0.092530788763287852294 -0.25375926360972506091 -0.40670691607474890317 -0.064041038373693917607 -0.067934297122979478423 0.019764951977711033015 0.28106939557669019525 -0.11123681534995048803 -0.017279186530415397566 -0.26876057705438577417 -0.20248466265081760396 -0.168295476731810556 0.06672005501014893758 -0.14477396540420064963 0.03159179270499602038 0.14290787366576976347 -0.028577846440296060526 0.2216587157704460187 0.0085143191775058513909 0.048064534676216560949 -0.069657468653618173637 -0.085255269319847504228 0.062610236184374459811 -0.035340508798775822907 0.093514390568777361334 0.066445935039793457833 -0.012158571705909067273 0.065848143350532906126 0.037564372620907518496 0.043472161227928921012 -0.16021302728424763329 0.14048061560434718653 -0.10850599161035344442 -0.086456967495036424198 -0.032196224551425497995 0.28729895458235527039 0.26353066845038680688 0.07085935057641203072 0.04730483139940018511 -0.13194069494559726441 -0.018632374438310443654 -0.10272940133781538474 -0.086236272641576475206 0.17620642234235378565 -0.0044914500048656349346 0.10971159423460642712 0.10005864314003760918 0.087087285125803381991 -0.10339901324442311858 -0.21769974031878758236 -0.041704087253572733052 -0.13137497747262408265 -0.0025257954160801936866 0.060432894569161232923 -0.12645986252269186823 -0.14793447267348178165 -0.076042314538517799538 0.073534274718395381543 -0.2145199884060172979 -0.072517456278061498409 -0.073874502371191391736 -0.10407860751128432397 0.078373941770870717005 0.028656060369671717408 0.13787581770275991744 0.045377928948537787912 -0.0071968183259994988887 0.13312649293344028245 -0.074808908941773277768 -0.070697785826736012083 -0.00062104841003319741222 -0.21317920983449223371 0.23869810367853014355 0.024487574052873259389 0.26318105937153574159 0.044742498270326488963 -0.021214823914595868498 -0.073297599527471529735 0.052219455140946627325 -0.0010616128287868115045 0.031945828583441672477 0.033382239449755012062 0.071705957792601693335 0.0024969936181693692945 0.16183213041661073661 -0.20793003722503289321 -0.053124240046527514136 -0.1084142544612064496 -0.080300538931260059816 0.086268440223024767111 0.024532344516389560651 -0.04687021863858609888 -0.13145925062647523252 -0.054721594640921508712 0.08025431128719302809 0.034083979565781595544 0.007898056341904383798;0.10181873911044525549 0.052355313233361143455 0.13098876260016700801 0.081713444391571257719 0.017300183397050458711 0.0035899747082650717081 0.023278749890655474342 0.0083847233949484317739 0.069596636040137660473 0.095034725408377429545 -0.03987865862671441386 -0.11086069499178896614 -0.1085431386493401068 0.021961979818004490062 0.082629088337938902398 0.0078109276811282697325 -0.1869796055680469915 -0.084023281129362248354 0.079172117422405069442 -0.059009499749023676396 -0.014857537736208506138 0.087249267081172560134 -0.028385885846070449401 -0.029277406104124329561 -0.092159623416403574359 0.0020821917679906959409 0.0035642788245530800453 0.019087342968899159018 -0.11841215807978928976 -0.038561723309151627048 -0.18013445307069914092 -0.065417537445239357097 0.029592896120645792446 -0.14476671620772652016 -0.051380535609363585381 -0.025444327339164851676 0.099060315206532550958 -0.15772311307874681274 -0.090122649883048175368 0.10202716580631462917 0.035182422432422977288 -0.03776510449367483091 -0.14951457357600991815 -0.10195923177396726267 0.081420701555146718364 0.060951224359811095876 -0.011564968589504209459 0.15567997407947936628 -0.1526258079566431558 -0.022457111135324999557 0.24178079319284795368 0.13661141077155267154 0.032337060529067797321 -0.055445692487528931702 -0.088744516977144735637 0.062549513330969822023 0.11425393950264670084 -0.10467228150987853419 -0.11440463984148398213 0.10823510600347722999 0.081715737279357741896 0.0059132887960477460015 -0.046356126634360728112 0.025541065026359166534 0.10608933857436758652 -0.14265237283438944593 0.041177467332100134434 0.12005384445532106541 0.088112293960560902906 0.19748006516984634162 0.076033872298758117814 -0.12709041757481273627 -0.074484915466377921156 -0.02787483449714311598 0.14091744174737355633 0.056762889026452274799 0.037232177934688165388 -0.041046512426732684187 -0.035658554202272922662 0.028969419362806066165 -0.058577046393450397932 0.11718285918071183471 -0.13216469012783424453 0.015244681343481000096 0.055117961320961965377 0.0091505362133330429841 -0.074977393839314190882 0.12546025474260688592 0.1334358952492087913 0.074783935691295641557 -0.068949706678031241758 0.02670956784059166228 0.046070824309738717117 -0.11165642147154214436 0.052106586205120514199 0.14848991183352541756 -0.028104526183149930452 0.021682675594148447668 -0.27852427457589190585 -0.11939492482468394563 -0.0099988509691456908812 -0.065758053506780128616 0.047333052698658270585 0.046650007575898030932 -0.058162432919415404942 -0.032254754391637295574 0.17452518034879879738 0.055927786801726164789 -0.07087865870881740471 -0.15218380780634307992 0.069108944781795841883 0.040587185937364843313 0.063400182166099258718 -0.038397927229308917441 -0.0061414600898213652508 0.082193734312541844034 -0.037452933621597302161 0.043403413605494496619 0.025787083001508091101 -0.020174157445146220086 -0.07610279399251765331 0.019579412142807468139 -0.11478546865358064955 0.072995211665635675868 0.0061991949736012489855 0.082117659490537522893 -0.089829929622099000119 -0.076999656701676480464 -0.024543393490735129769 -0.043236655239272850371;0.11973390257444624374 0.090168110378072485744 -0.042849287767877795863 -0.16954673771392406167 0.08744991649397938771 -0.10952180898746541327 0.16444601817830514778 -0.032031870876556393923 -0.0071061137554330536248 -0.1884001420326388565 0.16746242899462399079 -0.026026342899983390816 -0.13125260564938001639 0.048402552374376871247 -0.041675590604144302498 0.13919459422647148528 -0.093925184928188049094 0.038075764146465844451 -0.044259931091124464497 -0.14524994009995298438 0.13655065949381442469 -0.03724916532084500409 -0.10762539627226698491 0.12119067663036052485 0.038881378910730589327 -0.12656962129450233245 -0.083822482866234254706 0.10074101725363374116 -0.045426070699849260826 -0.182437116178841785 -0.076842509060416105959 0.094637825497142266662 -0.10550571689926596664 0.11656356566414163844 -0.11467095550627628975 -0.22257180893616757 0.069273069844913062743 -0.091778135993430015604 -0.29156965918309030172 0.071479857862682030789 -0.22063553453579401453 -0.06252009749211184797 -0.04022756996431370996 -0.24532899584022846429 -0.10250703648950233726 -0.027888723320924683341 0.01672257005147234632 0.16445800496909093735 0.23150060352435411493 0.059823688535070827788 0.0029227023273132694825 0.1480800739745728456 0.13036332918684812032 0.060950394009950684127 -0.038754110643240836931 -0.097790356142035572695 -0.049486421052200676995 -0.18481388857573735618 0.041293679888439113745 -0.16056059772824296528 0.055770803127314402814 -0.099894058678664576778 -0.0090830817091033175248 -0.13352292440761709402 0.040753492454268444578 -0.11069204098894962207 0.044747112626818637271 -0.025414159952376086382 -0.11403244011689751825 0.093257942152998846153 0.13537626261652366266 -0.1460239678313778322 -0.079597045959693135675 -0.094390140656883170234 0.061657840024100726839 -0.12582483530600035992 -0.065363256199605535013 0.18964196331053734257 0.0016134238389906123412 -0.064332148180180584451 0.071153959868914373743 -0.1250087447128409579 -0.18161344396034229121 0.13550024373718888571 -0.092607488020275949281 -0.10212086438281511858 -0.064258813756520621885 0.060089943191416153589 0.14723899034395593333 -0.02118831719745228187 0.024699934925529774127 0.020870497465926611536 0.018046490923560046249 0.08687998003961132365 0.16949392640917398944 0.062528002232333998456 0.099261356135942974133 0.081141677249282645468 0.096839482018610048564 0.18598968802529575184 -0.11808305022851653399 0.14588103675637273393 0.082333693336698571263 0.088588053904219629664 -0.25566510405711367904 -0.053655199609633795477 -0.16146803120912375795 -0.0049178270862677260847 -0.22660376211335689356 0.076968498544321473087 -0.13396563016042020711 0.038818798687581285156 0.065591776078082961177 -0.089069284015223570972 -0.0064669604647537952402 0.077944016579139657752 -0.083001095597503196655 -0.061060278329954482956 0.067169392791009516208 0.12368892954821168739 -0.048546897386206822045 0.1237723813868953221 -0.082160617859961343479 0.0048871681317439585185 -0.16109787915762843746 -0.025949874868722959398 0.1223216895279706784 0.086091318081273210394 -0.13675723665913575022 -0.11257230551146513164;-0.087201495155236868895 0.044398774359371888376 -0.10444274075219958653 0.072449482597314970866 0.0037801684386703799517 -0.13905702924016680178 0.0030312068670569564457 0.066496049907960680381 0.16540348634296928032 -0.14064569397454529387 -0.18024006346206999929 -0.055585754999223448147 -0.055215662812895908995 -0.10712506148076929302 -0.076192277496454047236 0.10479644630336062971 0.041469839175367582962 0.22967622525852846027 0.082691456647957045645 -0.079754439201052143571 -0.13785563599735348173 0.10770803698159821249 0.16722622072931964121 -0.13372334557463205762 -0.085927533706387421164 0.13443323212974905845 -0.085905412393975033591 0.0699630215160546437 0.30805382563172778454 0.012451927635330616029 -0.055170261750964746938 0.24617369910336475702 0.042664382723372168416 0.22482151949731041252 -0.10898883410750143108 0.20024213542106109043 -0.16734855945040316705 -0.059287957986909486929 -0.13238221500702615496 -0.017332261848726611408 -0.039646179102395533167 -0.13088748557655680016 -0.062767763187825245663 -0.010844241986665037122 -0.10153553703047232815 0.034183963314062121297 -0.061266074911834070282 0.11258096941834752625 -0.14882141610444984958 0.017710099440130966375 0.015664988299432230229 -0.038544585932377861681 0.13880578979933297368 -0.027483777666792941208 0.087483195395499022129 -0.093277804302643388401 0.18055702361968070657 0.12747127563816942897 -0.087084105964919042431 -0.16502439671308002933 -0.038242204471772560381 0.14473343329032239968 -0.11211010532582471599 0.022743303868546123347 0.0057799694876920337111 0.14088719654082440536 -0.040566760603347060132 0.11652864102363398591 0.0024808002140948963443 -0.092646176073666014483 -0.075095811600650541617 0.11428282300176184627 -0.17486134143917447803 0.0096215095294071607823 -0.12725657975656920473 0.16954926307736273294 -0.0020609919936447418723 -0.048037689344937864466 -0.10938584563318151655 0.044139716729973313414 -0.11309590129080887566 -0.035767688357979110503 -0.070320047966663842831 -0.1521607991845883856 0.070132344544712038603 -0.063981570671685306095 0.073878541016496934724 -0.069821725009846360988 0.0199501908044090355 0.12489663910148082748 0.15379461776007505303 -0.028474247363348886841 0.054030115505722356439 -0.21709303354462405888 0.051555899995040892214 0.15362422381647192204 -0.16036860383252568574 -0.077958832854755258368 0.078982172322840743517 0.030672178475795026237 -0.18777434723406680184 -0.10303402037912931521 -0.16287371429232966324 0.13135095428942517026 0.15234538715898462979 -0.011127729604796660068 0.059085562975414909759 0.011914639562585864485 -0.12632577308064174559 0.013039675451501383727 0.038724237283997105241 0.055009035794787101981 0.17995111293701754329 -0.032710750842068689326 0.15189948427011112919 0.028023626890429184644 0.082538561117007538948 0.014380882631052903722 -0.011699492190398624522 0.045851866322787052099 0.082041495672927289284 0.01634112110438588894 -0.085767693490573601589 -0.050018144548002178851 -0.063276375402502305079 -0.15475988803870360799 -0.034232971878507247043 0.10123578972280269928 -0.10801616688686285772 0.084477056402505329435;-0.020134705525713402635 -0.016019533042570283099 -0.092154189492418922547 -0.14642130434688344076 0.085787265106966548167 -0.054927435661109177967 0.0090399842426984126226 -0.11361450583653776025 -0.064895701483200118886 0.18254107763589788593 0.014185407462277744434 0.11551585486515307533 0.10355134150888303801 0.063388335113276267352 0.035928759099027464397 -0.076702194366802561865 0.17065775748197567485 -0.0069559820206182296567 -0.082278577627499571712 -0.063943504083765215218 -0.184181715331264928 -0.031596342492421977677 -0.052822236436443965879 0.1689556020266850811 -0.081332906940149912733 0.018057461717813822616 0.14092900772724190062 -0.085569005626363214834 0.036096075401002944427 0.16319253236680769659 0.031364103620301404807 0.027758101006130631028 0.16439784531036280568 0.15480205988765582958 0.065227339326880087733 0.047869489008592322477 0.11730954006469980488 0.042523722843013790629 -0.002496874990045412461 -0.22057180413894475479 0.028987777762856929697 -0.10480257776423648752 -0.060787012576570223499 -0.20859370757883555214 -0.018544515125203456241 -0.082497462603177793006 0.11547133843468104786 -0.038717016069862768279 0.11270321134524312334 -0.12057111855311866688 0.09946452105102933372 -0.17688177729638610014 0.035010755972568113892 0.049205457883172376565 0.094383582575938165804 -0.14875130901955904705 -0.047815555878958339309 0.1415543493935130237 -0.04865391890378637646 0.14444903277961462784 -0.12692720604382107252 0.059291004139412170626 0.14423696041311406812 -0.17006921316082354578 -0.077426363370506845474 -0.013758296761936041758 -0.040211950200972804148 0.10349171723243810739 0.1322686061948963876 -0.13356735426088187091 0.076430361225252457791 0.095884192568371801046 -0.08857407250467674853 0.1301312978980698476 -0.14054794362320605083 -0.13873298635522929301 -0.064873531301623890699 0.065625393071792451072 -0.00097791257615635965306 0.011119973699097427527 0.11955314893234735008 0.017276090192946739338 0.012953897483064788498 -0.23979541945613588871 0.03643940095428774284 0.041190681098021146578 0.15729950556185762212 0.016162005819965657993 0.0036760339745495022867 0.057929893272736926457 0.071399433199342804413 -0.080074864475054866042 0.033131643616221326254 -0.04361554319091682369 -0.17675880411417149718 0.11064333356831414223 0.01951490723946034192 -0.070276817026932253407 0.034128728611569167373 -0.11504925668105360492 -0.093476340637507177034 0.13042848974056120426 -0.042387501698566684705 0.073480010637183401645 0.067579136302538728165 0.0072622207210275933204 -0.12732760721680710936 -0.11348227927583266761 0.019169186085079260862 0.036845027681074650483 -0.052699196658701707996 -0.062724912696689616443 0.029494365154359880599 -0.00024430479162337349897 -0.1021614661978042099 0.0021612742355750797635 -0.05328632491646297098 0.12305842420150230054 0.03438887608078045055 0.01944312441711977188 0.12679718961669242394 0.041702926543750365451 0.15470589915647570134 0.025399034133273871994 -0.015122007898973723397 -0.090562623472517977952 0.069692309287465573076 -0.11808941879257765784 0.022419361235039524799 -0.0063392001399219660707;-0.13580170120265427913 -0.00096752987258019035322 -0.025506503410701597545 -0.14478040170665518183 0.21940376650949652837 -0.059708315266289398171 0.010559883595591908201 0.077900448947212361239 -0.077972361109364063392 0.037154681061330407932 -0.061528463611861886062 0.095673065247901006858 -0.015341958990789078543 0.045732867085661196849 -0.11591561317187377977 0.034216537959678855474 0.030450446020584543555 0.085117907006755755273 -0.1324133565883735264 -0.11876771458320831143 0.043773998224256892298 -0.16377392629421538839 -0.042366091098498190326 -0.05019164681500330738 -0.0099290728185013454182 -0.13998995681709239247 0.014699051593580808941 -0.09409675543165219036 0.22670372394313093034 -0.17689686070268095808 0.26743521669995556911 -0.13067135193640735946 -0.1208407715511159719 0.026450649403067540838 -0.017744574126379135393 0.082971293717678792912 0.0012415082389323379986 0.22413445793657527094 0.1421714737325880662 -0.16531323802298603098 -0.01725523881842840751 -0.14943844032570102742 -0.062807431028489651981 -0.040057863154460984778 0.16734598072893744347 0.044401642239509202248 -0.12700037123427196373 0.16484553330150761297 -0.12113147965119340499 0.060873000005880972818 0.024254034402694371608 0.16919666743780348295 -0.20489484369621849269 0.069646238620773973094 -0.052886610304855717624 0.087877750872068144394 0.024548044463321934405 -0.098126327388839612587 0.0041592343423716314141 0.059371293371848335441 -0.082793940868702176061 -0.098582287140944607762 -0.00025728233412211426109 0.13085403396539405096 0.0037591364803167973477 -0.029128463580347204592 -0.11328431539355655888 -0.13594340134300331169 -0.15713428387601247049 -0.15318959150368499644 -0.087202963338633004975 0.021845025805406433073 -0.28092692184758549789 0.16806552216615772144 -0.039718835030752186466 0.18507269296800199498 0.23221750494792842145 0.11691416983457472711 0.075308935531942455821 0.042584965438767989621 -0.020668605982119996056 -0.18374160034381800677 0.056144908585728833805 0.019124759345469852234 -0.071491765091659539855 0.15147228379483032579 0.051746319353345927861 -0.03517243599107749974 -0.091749994852702951298 -0.19511473087317232622 -0.20242321352441283722 -0.016479584565942256846 0.042821693602783955646 0.054626512267835387882 0.14923981946529743525 -0.18027820081990456047 0.19385808088955147621 0.038529405192111891576 -0.094698802892499905903 -0.035732352687205939934 -0.066472159479420159234 -0.13855896217109076041 -0.12654462175704914162 0.043091875254101436044 -0.13287917481443745071 -0.20759995296153432864 -0.1503486803058363408 0.14599962539888294843 0.084711596608388423091 0.16986302102383260548 -0.017450944870145000676 -0.056140888196643715102 0.089181226528190354896 -0.054251454689810574283 0.0027531307303785231867 0.13627684657027566706 0.032433131583929894481 -0.14475830371949105491 0.23321415513613924508 0.12450467671569474815 0.040365160867360395935 0.067562763478327736433 -0.11935745832692951085 0.019663018796010754696 -0.078894573337898551979 -0.11316609245131462047 0.14133642761642442598 0.021857615541318167751 0.10636743604255990969 -0.040532210228774526173;0.08201170939211419042 -0.10208172052874361913 0.034980258263877836433 0.069224328945503954547 -0.1200235737493123428 -0.022974573020804377188 -0.070345841431042943626 0.079860915417449315767 0.05773018262493685715 -0.15517323307784430808 -0.1692998822878466203 -0.065148332232084965598 -0.075404142469226873025 -0.0012449877230632936179 0.054520366001306351522 0.063203440280325970391 -0.051017645713007153674 -0.081537926330875795666 0.19762664962839374128 0.12945110288942893173 -0.096791641733377564716 0.097555217883150052716 0.031750390765954067396 0.17721085991881355137 -0.20954557604583509689 0.064236330103670497005 0.12563740472082909894 0.045920368627803451189 0.059363843826007775539 -0.039897934464239670493 0.11214114227606515606 -0.023901753103495470415 -0.12007368958097673628 0.017818820872506416914 -0.11016516276101787075 0.23688651316144984649 -0.11962683066649383579 -0.14600530377041884278 0.10231298637337817026 -0.034461688350706072559 -0.034921975365936580582 -0.034734681364198966014 0.082797920627375051761 0.081717925278927822097 0.11453323531156182902 0.11107914408271497841 -0.15276842234273363408 -0.071295914547454611321 -0.14857608084560197659 -0.11324964702411771666 0.16140326538633401054 0.025639430064724411107 0.012796584341077055225 -0.042739732030505232785 -0.052867924023240905895 -0.0058443697267524449823 0.035871646893917252807 0.090392248867159546988 -0.00092366791424889054668 0.05142058327125716144 -0.06715996597482087882 -0.12294234937044533351 0.040448840400468449863 0.10433211216313365011 -0.077249329631392332773 -0.022824319856887400476 0.046241326433039922628 0.082414332832571893239 0.23313354926858287364 0.040882826571887721789 -0.076247760549522702878 -0.091202405201847761007 0.085201505145228756399 0.12249954567524348747 0.040450564270873574924 -0.12095982290091558675 0.030810029780776473918 0.1317954865245481999 -0.20399256124602563323 -0.059682685491155809676 -0.03427496190602853654 0.030171420318753579964 0.072280618873677093816 0.0096137918345614616078 0.045301873211197218883 -0.039234597504747573127 -0.19192843153625302466 -0.050389246700373195587 0.074404153914673878956 0.11959782785304269581 0.014616250002952342266 -0.11656817437135380544 -0.057104156282123091914 0.004615611557033173426 -0.087464870490401233627 -0.0069413402555710355252 -0.067106962472748055148 -0.13262622819890301784 -0.0093789193307988825282 -0.089035216943924841426 0.19282418704428902489 0.1490040659018777025 0.11871952621157161323 -0.048323138811076575549 0.13744283201075380152 0.067484347671037295258 0.0031465777638216962248 -0.071956716320822414201 -0.10397163730066452669 -0.018357067190476819563 0.017613129674503211902 -0.14736417599956280755 0.099136718084445268895 -0.058729580862393333807 0.07688632645621894246 -0.096160246508545765831 0.014882320315363108121 0.010577486013089323555 -0.065330801173791128167 -0.070662511563021571104 0.0428896088575898074 0.15868721672621100005 -0.066672304505016780074 0.074735756570866979098 0.10589188487795360427 0.064820106951154643493 0.079346843359178437227 -0.17338814264308671786 -0.025999124668586472836 0.12853835786629813631;0.032478125932987329805 -0.12415304960218555286 0.061168099822431397372 -0.084661476966647705722 0.11213968993792239326 0.11533541099632976801 -0.049490444121170693026 0.12624295840880031538 -0.20114641041208955463 -0.034714334475901116595 0.046447032043663565026 -0.088333692618079259762 -0.074296629170234149142 0.17260399876515986062 -0.078522097164446691409 -0.01247684944735874546 0.081271869428872378638 0.09587706426501822754 -0.20983059032794529331 0.093416088326072246883 0.084656915177175287579 -0.19396589243386247459 -0.21795621470758452798 -0.11550253489230485893 0.0098570763931182404233 -0.10093661880157658861 0.095040815206196088694 -0.12585928228703022191 0.0066958578071985496924 -0.096908925041435861614 0.039542778255632550499 -0.10544163146821657062 -0.053319447794893101711 0.048697974862487364289 -0.20713585060612116351 0.13114610021796996309 -0.0032484050342799311063 0.097002359550836261826 0.0092917311166930121463 -0.15286588958393756976 0.17543453571776262967 0.031010625109361662083 -0.065171497195365760136 0.16329026732844806324 0.22587969566883583927 0.13855048559956684162 0.066159936888988676862 -0.067146764075587617171 -0.11106200506244862103 -0.015154247652436961258 0.19554032298970369652 0.0076368045132221952856 0.042092680544560820421 0.020337052191496167441 -0.027764846323729767963 0.086947338787496247781 -0.16256009812067417908 -0.12121794413824761583 0.048867204513488082807 0.10452006766225230283 -0.0012782275767599590721 0.16905600717176882952 0.14036288630900115026 0.076353179407389698552 -0.11343158881301149132 -0.022916505167750570587 0.13928283015931144928 0.050731969236209352447 -0.095012184276913325132 0.038533466492608109411 0.092923988431865250925 0.26192445699627542322 0.041111855628554731801 -0.033698076202582992467 -0.077318243134942482575 0.094722316806756856611 -0.085785133952583317307 -0.070869294365791424273 -0.054312506129235181562 -0.15952820389407482149 -0.087841731501995104492 -0.087629688154677712331 -0.15997602824231921259 -0.15911545736473656221 -0.25080161978899823128 -0.16185298640446504903 0.14420718466648771439 0.21564426834829042434 -0.089633033632211950303 -0.0679048713941957649 0.17310825405756632978 -0.034514646844560292749 -0.0036756352152999289401 -0.010778598231078887273 0.19618784301623382049 0.027832578110161633467 0.019723024864185853544 -0.007746428765313269002 0.084968242196782520215 0.16270054938911232556 0.13292635801828864284 -0.086940839571433226052 -0.017105976068316160188 0.090546929456552474602 -0.10800432302011450658 0.040741733358864114234 0.10529048189227901977 -0.047684253803108436753 0.081885981446283076512 -0.17918001836620375822 -0.080120863710379380818 0.11560412409720935423 0.082471653847850087682 -0.13281768339222149722 -0.17106565736225309848 0.039279821968307850055 -0.1462882134478773466 -0.024322810974937263129 -0.10262879484412164299 0.03040562367773037844 0.073676533885401213064 0.051567168440435184884 0.061252023259052532089 0.067566014381140931944 0.042968035387997836894 0.14092574564225249234 -0.082028929104044009946 0.12173391724414113491 0.079543316973224170718 -0.085465391046337255143;-0.19117460204652983458 0.13216226258303065411 0.087233138161870102389 -0.15296249138323300687 0.028437519124419496919 -0.11685166339960194326 0.10462015079738075374 -0.21471543061136480479 -0.099911125775085041223 0.15562079899436720432 0.14434797384894876293 0.054559252448114194112 -0.081967996147913405047 0.027572354036955907391 -0.17535878412446637142 -0.08720154751922921943 0.071031730653358687855 0.13972276464204963498 -0.069752940445904854094 -0.13269114486737323966 -0.056807327456583199543 0.016274696980508780025 -0.12338395648679671701 0.17691085113952798036 -0.005498542632671720061 -0.12685395038621755104 -0.21372778356768631913 0.071665158922893490434 -0.16010470480941585425 0.082833584355594111481 0.043297700540047799611 -0.079324202717896086234 0.022351230559467135522 0.079558404146471140006 -0.039275130843333644348 0.18182811326010367425 0.20032241149346025066 -0.099694426998789303918 -0.033492355155597473837 0.032511751059580221157 -0.027529620400316024559 -0.1553186169824870011 -0.1066508855108514453 -0.10482427778542850738 -0.074025243104064719635 -0.026222977800675079801 -0.088353725869172061724 0.045387643723180805255 -0.12928597006688541393 -0.13119918355013365785 0.01422782976697917201 0.052423962964544865151 -0.037563194204595987125 -0.1109940550278571969 0.059798189365754483848 -0.11186060010211582028 -0.04623011039594218663 0.061900023302184206675 -0.10256164969760912797 0.08819306807808671711 -0.07262399084361068069 0.05213922874318650813 -0.078826370514816085366 0.010089635668280550265 -0.01145305819015845529 0.18981071704105242914 -0.024558092923563919902 0.17715194264375505595 0.07368475686330984431 -0.084389222211483358449 -0.049646601467943939079 0.16374784738785080895 -0.017792265201586165979 -0.043643851817937881488 -0.033265580355703296134 -0.14661949713396418837 -0.024832666969033620474 0.057362501708928578803 0.059309415483877678255 0.089788504865909918307 0.064660652565395354552 0.11578014018309970568 -0.19378816364141801531 0.10658820815087950706 0.11617531401119569889 -0.085379137033156984882 0.048870269581415479165 -0.022164741943911013544 -0.23031699102097630272 -0.15599173784458311709 0.10019565973261020109 0.17729464196724739611 -0.00042666051483478627769 0.058312216731521225588 -0.038124229429122052926 0.13887408992779953776 0.086919459200048301839 0.02235050851930428864 0.085947835446592277253 -0.03758402182064543573 0.054273838320900262555 -0.19800527361795355885 -0.16189620158110162862 0.21499389038736999025 0.0033038742388204807993 -0.060324560689007614145 -0.060948739185236321114 0.079448533852770814034 -0.10001086165527901806 0.04941776317184564532 0.0056704773664356181162 0.039164237374906589462 0.038300868989474531889 -0.14064800068921193277 0.025072231484242844118 0.057478944475757215438 -0.15903731842747009795 -0.18600065886846783858 0.13020342756604083578 -0.054675365028544059554 -0.06162043736928921045 -0.14978417455821052551 -0.022177308802929451836 0.07049945553478018101 0.035316405575204816436 0.25833092263104712183 0.016905539993927010817 0.11675530858042136584 0.1701220813562634715 -0.073654839917246722747];
IW1_2 = [-0.19812899986291598875 0.22819424347487216043 -0.055642571668791898643 0.042678702526946353524 0.1598119809528197599 0.14799537307750257331 -0.12560511606707888688 0.032175334101127377184 0.10727227347693828186 0.047996515331116859637 0.28458516979981524075 0.006757594564315872257 -0.14399127323048649396 -0.027711191778411119885 0.15452444723146854799 -0.059521105072801540337 -0.21211715697031158223 0.027820966023446792176 -0.045292309494351021271 -0.013588424602928302759;-0.076179454448280850554 -0.066190110436716367848 -0.02575998079635669763 0.049742498912814632483 -0.23091554676427941684 0.12159896651699378389 0.13685410031731437552 -0.13495540221539878423 0.14108455258393631793 0.14049689498416473299 0.12917457698876755323 -0.026602881881024626615 0.10566183137277010418 -0.10716038746242055602 -0.011384278480501573705 0.13239922551620050828 -0.14135351065933351999 -0.073252379147372773116 0.0417281982190126563 -0.24346119643295549562;-0.22645994426975804559 0.039454222111597304912 0.18232811884357555399 -0.061170776715688872371 -0.084498098596809137484 -0.055697367556812912848 -0.11260579768713306625 -0.10423225523301880846 -0.10691879251769841053 -0.010584660448408151831 -0.067020507727157618838 -0.17700390975371052549 0.15444785250690390432 0.17546890813024318412 0.010943172092088010103 -0.11985021651427259226 -0.12386894451135638251 -0.25611904931942869323 0.21290980661863423418 -0.13630444644308689628;-0.11072889048622144847 -0.26495846962178881689 -0.080264461455496552422 -0.16887384317990364324 -0.21845202569533611614 0.00093196359185504984088 0.024625121347522399562 -0.23140148045608247007 -0.035368898154828319613 0.13704906003041272822 0.19716485439137107494 0.17416694053544651277 -0.10231910086280288086 0.025282063962617947611 0.06246539953451855226 -0.041325875242276460808 0.17510309339955204555 -0.031069016128363866058 0.091145623785268095607 -0.11349802416621405932;0.19164612204185102473 0.16865724555615493885 0.051653927146275084581 0.0817233414114166834 0.14062044538926568582 0.38232402371200790991 -0.097432930180563384615 -0.14817309399404660075 -0.080416823724616323665 0.10410363824972417024 0.22797586693947000103 0.11461898231358763622 -0.23332376521700043392 -0.052289315183080546656 -0.079354320741670883455 0.14213857071672236776 0.025765963949303020974 0.017612430584463899252 -0.18061578757651161609 -0.036881193443569382229;0.20197567385843889776 -0.098335190629333685264 -0.18899533823112507624 -0.056919402380279586484 -0.28257362737765240324 -0.15371826439273322817 0.016659014233530597404 -0.04528137024520241527 0.065296597008980522547 0.0039381807292672840401 -0.10669760636993412539 -0.18114418001758719745 0.27626003642248431191 0.041671506605209476803 0.14794690118057501893 -0.10480980327582128941 0.15867231396233286156 0.14541742408293598099 0.1079791913337828646 -0.23139898761329266708;-0.22819875397092570513 0.13573202358577354798 -0.047353568553257965879 0.065788072266595151727 0.21018826941626786442 -0.068270281255344927862 -0.17727374731700254462 -0.017037251336539112334 -0.034636124054407871342 -0.048779279821484437807 0.12997644511145095558 -0.20681914936629958168 -0.08682596813676655978 -0.076037197321899965829 0.12500985326694780131 0.092010406031782565606 -0.19137371737056244059 -0.12862130159586138145 0.12510905833425689515 0.087219297216342694945;-0.01151219985170438137 -0.37934894578250849539 0.074241150779088424527 -0.025270799110023913631 0.048134995054679961812 0.61456735700608355888 -0.12238504936870794881 -0.58217326678797332029 0.017415379364911630355 -0.21734820164354548555 0.085613518869186833182 0.10119234238023543104 -0.17871748645373614073 -0.01354261700812751934 -0.0046110830705649863415 -0.099270450429590845198 -0.015405646257428302903 0.099744923042203947894 0.098874073393133254939 -0.054495176262164483905;0.091574631737024514422 -0.020383316143666840858 0.1048309208759442418 -0.055821317095654236773 0.18798631312359168066 0.39210255293364715268 -0.16787246985148171485 -0.055282178110441629326 -0.088194471178128425182 -0.053345739430797900482 0.45763298150400810727 0.34403164063813646001 -0.38271927914070802412 -0.26447081269023547945 -0.21111288902613248308 -0.080118279922487906086 -0.062792360717108530732 0.061153728524721381876 0.04795448502261873136 -0.23979035308078550104;-0.21798571838373034804 -0.11155012537146569152 -0.04728373286084059518 -0.13728827674180127394 0.10571413582637813333 -0.26927600670202228583 -0.065911273490203967085 0.10733681517164900265 -0.026287411412664003774 0.079909574801157012836 0.044491638219375163887 0.11320434202198952078 -0.1850120807114913335 -0.011391850392964189206 0.030112725561946725172 0.22390625137022965307 0.12719056087250907305 0.073866371237110831083 0.038244645075194878825 -0.027482045231775935334;-0.34960663991992757538 0.46571555952517362797 -0.08303521101095974466 0.013634467656489981241 0.20748369178625386544 -0.32927020377859428368 -0.19016606862061172234 0.17155452586513880719 0.10369508173711784738 -0.093682001135076159448 -0.012567569988644654647 -0.10168345808157241983 -0.21280591847801880179 0.14444090206142215504 0.049446781828533507841 -0.057941680256916455738 -0.00096512959731275666485 -0.027319239735124206669 0.045257962191203676694 0.04229750975986398126;-0.14032850609989927504 -0.12981274940960335629 -0.13425085744052359105 0.09623964815076828383 0.21283531983285353117 0.32214944721586857845 -0.2256866919685953099 -0.12108962757573259184 0.0028313685662649120366 0.14958457193639926319 0.20371714987675426656 0.15264436727796962256 -0.14598564029036487089 -0.074867226177938200893 -0.07809986728750434315 -0.14466834456044838642 0.081812653020045492114 -0.061009765528223888764 -0.15711319018116573498 -0.2806927961373519298;0.47817418242224069003 -0.50203742814852858611 0.012374413860980025895 -0.061376153203000841097 -0.24641218358855951354 0.017563219952555837733 0.32504063325091941961 -0.094861600003173562889 0.14504551548621794077 0.011635156434573638157 -0.15277923561935213836 0.12212460679342385106 0.022020261874660582851 -0.21972484471784045623 0.12288028469093331685 -0.012535999151132442425 -0.10490107684413581268 0.032275452615333523332 0.023919870575276690194 -0.027867319067001055516;-0.029652557913921961941 -0.10405462370767996905 0.14924781377144138994 0.079240057985863199264 0.052939748174852863105 0.34375807030695121336 -0.1902525376854857786 -0.094694084769785608069 0.016044361317569980768 0.0067253571136590981419 0.22231196022518440181 -0.040630258952077578927 -0.13018341461939209047 -0.12584826720240638309 -0.25410594643818112948 0.114364399335677977 0.05839038469175851509 0.16525422149724100507 -0.077872022839967067198 -0.066904615409586740138;0.18924740269522549729 -0.08462179903800118308 -0.20858718149547389453 -0.052903534569759699813 -0.25248228801394828613 0.18625094350097590179 -0.07538668981911195166 -0.1712556203109142916 0.054880314425598521189 -0.049388848857234005085 -0.15804545551606161147 -0.022499617076591059417 0.14448049186510894537 -0.022351796717147254939 0.12786745793004933303 0.10963801432237110789 -0.01144393224731161951 -0.0049687211814674414959 0.22614153541755191434 -0.072064243029269142715;0.22974413364143000948 -0.33709803109893410333 -0.022184884328027107414 -0.059537357517095254589 -0.20716737869527807048 0.17829861257819812348 0.098133234173152381064 -0.09581352402579769445 0.024404346268397471287 -0.14976857113364455687 -0.25509214060696761006 0.048024298281129855492 0.11811356601316040649 0.040004763087976139002 0.031289229724782548214 0.075160875700922266662 -0.14806600249485327159 -0.048808549567654818668 0.19541506944186853856 -0.0019392827217850519377;-0.44759696779072127848 -0.026373659351734763528 -0.20998712304216243796 -0.24964964578450932198 -0.32605574836471401534 -0.20575328894938649249 0.10402338197409138898 0.17662978750358013236 -0.12403531193381862885 -0.036351495681707202134 0.16295868218465797694 -0.14965940990121798237 0.021905555292174683918 -0.051791232910391338251 0.0017823605936755975918 -0.19975363527293149568 0.072365160653154264603 -0.04840788750702251092 0.084948529835128322452 0.15355766795164868532;-0.11894270042200426329 0.21069147463843684864 0.082561552318068442968 -0.14419012079817411509 0.14516943205305976594 -0.073759312938532897719 -0.040686747363337841255 0.17170052431039031782 0.057383878631227722145 0.050685995805610645215 0.079686826942911542782 0.091769400091551919796 -0.06005457793434225422 -0.083703563978682046787 -0.077233882365496608902 0.12623331135658633073 0.10057158487060513519 -0.00083561478061875229563 -0.12744343926133219758 -0.036848292761050345512;0.083549783976396216345 0.43264312171010227415 0.04986450339024269679 -0.067652432327354475317 -0.27636097673398418717 0.11271191776233822901 0.01473825245402299311 -0.026016733785440365745 0.061999783784293473199 -0.0050799297986063671889 0.03062293804595007593 -0.1105242714301901269 -0.12766711218390153215 0.069970060257384072977 -0.25720597594757099724 0.10622477642327672609 -0.1331095074705654635 0.081411239000894738971 -0.11253147864187830474 0.13574865556097900909;-0.12369396543849119074 0.077141316725412162336 0.18616695764292756632 -0.1083194289029958679 0.20965278683381205482 0.086646343518843579878 -0.15867924250830089949 -0.029873797531505156405 0.094031450902756413823 0.087628390093623914625 0.0044267042888225180408 0.10364284595185876969 -0.015618311931739549403 -0.086645003334232237324 0.038368874414902331971 0.018151632428707365624 0.016683105786945925247 0.002497324578183418662 -0.12408956945086289936 -0.034210175627334478421];

% Layer 2
b2 = [0.18846681868783698999;0.54013942994903818562];
LW2_1 = [-0.33719371554922378253 0.51795498950152929485 -0.44064024326094208828 -0.051115127672248017454 0.57300168706225873549 0.36865635623710535373 -0.46680899283830695756 -0.47835753567709671241 0.53148571977178582504 -0.64756467974968923151 0.029381291648612802708 -0.68097661093279970856 0.43456002988182862445 -0.40099073796260165103 0.37367518858408788063 0.17090759304769670424 -0.42557309139754989635 -0.96205354977500534552 0.18601185141811343859 -0.4075618791846132849;-0.21919102612317648004 0.37530002442637527826 0.010347921644317657763 -0.17306352488651230437 0.43575710923020444243 0.30446851346276276873 -0.084477659765507084888 -0.66279814227638467194 0.41864795944656113535 -0.30809322257077248475 0.53026320449028319093 -0.56586390433663180666 -0.30490648454373853182 -0.34536096867843713021 0.20186432296916381746 -0.86984173226001393342 -0.31111257062754177349 0.24240203458814876813 0.21402875925514044941 0.4514449154756916549];

% Output 1
y1_step1.ymin = -1;
y1_step1.gain = [1;1];
y1_step1.xoffset = [-1;-1];

% ===== SIMULATION ========

% Dimensions
TS = size(x1,2); % timesteps

% Input 1 Delay States
xd1 = mapminmax_apply(xi1,x1_step1);
xd1 = [xd1 zeros(13,1)];

% Input 2 Delay States
xd2 = mapminmax_apply(xi2,x2_step1);
xd2 = [xd2 zeros(2,1)];

% Allocate Outputs
y1 = zeros(2,TS);

% Time loop
for ts=1:TS
	
	% Rotating delay state position
	xdts = mod(ts+9,11)+1;
	
	% Input 1
	xd1(:,xdts) = mapminmax_apply(x1(:,ts),x1_step1);
	
	% Input 2
	xd2(:,xdts) = mapminmax_apply(x2(:,ts),x2_step1);
	
	% Layer 1
	tapdelay1 = reshape(xd1(:,mod(xdts-[1 2 3 4 5 6 7 8 9 10]-1,11)+1),130,1);
	tapdelay2 = reshape(xd2(:,mod(xdts-[1 2 3 4 5 6 7 8 9 10]-1,11)+1),20,1);
	a1 = tansig_apply(b1 + IW1_1*tapdelay1 + IW1_2*tapdelay2);
	
	% Layer 2
	a2 = b2 + LW2_1*a1;
	
	% Output 1
	y1(:,ts) = mapminmax_reverse(a2,y1_step1);
end

% Final delay states
finalxts = TS+(1: 10);
xits = finalxts(finalxts<=10);
xts = finalxts(finalxts>10)-10;
xf1 = [xi1(:,xits) x1(:,xts)];
xf2 = [xi2(:,xits) x2(:,xts)];
end

% ===== MODULE FUNCTIONS ========

% Map Minimum and Maximum Input Processing Function
function y = mapminmax_apply(x,settings)
y = bsxfun(@minus,x,settings.xoffset);
y = bsxfun(@times,y,settings.gain);
y = bsxfun(@plus,y,settings.ymin);
end

% Sigmoid Symmetric Transfer Function
function a = tansig_apply(n,~)
a = 2 ./ (1 + exp(-2*n)) - 1;
end

% Map Minimum and Maximum Output Reverse-Processing Function
function x = mapminmax_reverse(y,settings)
x = bsxfun(@minus,y,settings.ymin);
x = bsxfun(@rdivide,x,settings.gain);
x = bsxfun(@plus,x,settings.xoffset);
end
